{"type": "LogReg", "min_dcf": 0.23003072196620583, "act_dcf": 0.28515424987199184, "l": 0.0031622776601683794, "model": "weighted", "expanded_feature": true, "w": [0.4673196684691855, -0.010775143948345929, -0.05207241575722741, -0.019828971112319287, 0.010258950894722474, 0.05091569318712816, -0.010775143948345929, -0.4686653946601103, -0.04223013924913599, -0.06006302388002745, 0.006225603515347796, 0.029169129841328845, -0.05207241575722741, -0.04223013924913599, 0.03523608754718876, 0.01219484842191738, 0.021242507400676937, 0.017925309002359727, -0.019828971112319287, -0.06006302388002745, 0.01219484842191738, 0.12614670136477216, 0.011341791915137064, -0.0752226966215142, 0.010258950894722474, 0.006225603515347796, 0.021242507400676937, 0.011341791915137064, 1.1125241553072602, -0.08883953638911099, 0.05091569318712816, 0.029169129841328845, 0.017925309002359727, -0.0752226966215142, -0.08883953638911099, 1.1662773711148884, -0.013486209548107744, 0.018930573500771666, 1.802171515950751, -1.8302025734793301, -0.058425752676442795, 0.07566340971550817], "b": -4.168231529023361, "scores": [-3.621444451080291, -3.680508196933019, 7.718055881752551, -3.2821797797198764, -3.01764414351668, 4.270796941325705, -4.557420921602051, -0.054008716408056934, -3.776174797401656, -5.400413676952437, -2.7362220799969377, 2.9436783181578114, -4.296403524456631, 2.662126916437538, 1.557084880376376, 2.6424476645045987, -0.8831411107672089, 2.5753869478673534, 3.95298595559807, -3.2322427873934965, 5.625082935725366, 3.1815489019984113, 4.103984427809998, -3.3553770051363507, 4.061922988872306, -0.32321806386199725, 7.047869831374974, -2.659704708490149, 11.327463937481156, -0.08635652797020654, 2.092281928509702, -3.2080031667315083, -0.5549051405251122, 8.008196718977814, 3.8862215012149557, 4.420829486988835, 4.456293801083447, -4.500795133377878, 4.4178126608769, -2.0608476500510475, 1.9391624940903398, 3.2512758961134463, 2.6137891303780707, 2.590741467257188, 3.4840327304126966, 4.743313711726388, 5.59830559181481, -0.2509656886561977, 0.892564498655998, 4.697013853689892, -0.8715432614798693, 3.4004594348146995, 2.8756941805440297, -7.498279198008979, -6.6847764551846, -4.8380500254990135, 3.2905658703875718, -2.0962915047764374, 7.092915132730705, -2.2110969069337347, -6.7144172801293704, 1.4780395673844575, 5.41678730915543, -5.539739132187527, -2.783383802535373, 0.7589606782254772, 2.8293578395464163, -10.4901362108365, -2.344661258382282, -3.689233296855355, 5.314100544301524, -6.4741583658433965, -5.4732612294389495, -2.6326308412873987, -2.2233097357217266, 4.555962234570279, -3.3951923001467597, 4.372322942536319, 9.506884592485154, 4.808888477019996, 0.3617503690706445, 10.639998814503503, 1.3191955411024465, -5.844196610437042, 6.10340931851458, 3.9835097602266067, 2.088596588615151, -5.296718596696638, -4.81852132943478, -0.8253131798071527, -3.9623725025506324, 2.6960131488917787, 7.798729068612833, 5.465088520139436, -5.008945302936781, -4.115036885009594, -5.318096576968009, 7.585746238055472, -1.7035346053084774, -1.2983691905790886, -4.523142755434034, -5.123477816458181, 10.4493042676595, 6.131634709091354, -2.3319001441623834, 2.889455681138391, 4.628417311036055, -2.058781831810493, -2.3963209893192587, -2.831627508032943, -6.00447269299073, -3.133799109160302, -4.2908980435124855, 4.870519987051123, -6.374019045344066, 4.663096476144332, 3.4911990663143007, 0.5246595707415302, 3.208561718772822, -4.131714245296428, -5.589591222832735, 1.315072915535096, 5.510637305813583, -3.7024235426754837, 5.739895301394808, -9.190827340859993, -5.85736537130401, 1.6802769773241066, -5.13797361452126, -1.9909632711415322, 1.4722343130512834, -2.3700039340779986, -7.313992584820503, 5.5556242273672165, -5.60307933281024, -1.715077474243837, 6.666516764153944, -4.5420063422826775, -3.1883064084547286, -4.881226953361929, 2.8836719592435722, 2.0377590374465475, 1.2891840859542443, -5.7677788989469905, -3.6088710583815997, 4.9261964925896615, -2.1534618033970414, 4.35938618250371, 4.059235986787376, 3.8548275610729563, -1.0393608523776017, 5.034681456549158, 5.6354198139477045, 6.206391635820384, 1.1260973460428425, -4.829795755046741, -1.9052645703683444, -4.983023044502352, 4.910071578981571, 1.6823331601804017, 1.3100638718251942, 5.388913895434435, 5.052308663332808, 3.348264503220709, -3.6806678080145048, 5.2078742899491814, 0.9243536372310985, -0.09274173744066383, -0.299612104838324, -2.874593116726099, -0.9590751718886761, 0.4056067066066342, 3.482810877011831, -5.937577069168442, -2.1218190425456767, -1.8044323712952277, -7.988615472964372, -4.409914415282999, 4.055286008448516, -1.9561788131900624, 4.389388043871861, 6.720140654020459, 7.933526969817835, 4.746998425770986, -4.467764824081259, 3.5533548386854577, -5.873981443595521, 3.580998893718773, 1.1155557067493702, -3.056491552102404, -3.0144379978449045, 3.4172258489987257, 1.593394716692512, 3.633241463910248, 2.9962147668461148, 0.2663456565602189, -2.988023778696556, 4.794809430322751, 4.945041532322585, 9.810273064384056, 2.0936185021057607, 0.849390233913792, -5.7579430276054415, -3.134290776735577, 0.5673075981088469, -4.375823531471717, -8.602657328314642, -6.856748419042577, -1.2860215755177506, 0.8300239896816213, 2.6003920458381504, 3.5125880571007118, 9.45279584906595, 4.843712167632903, 0.681244201853302, 3.523559744707496, 4.679873064129102, -2.198916832804449, -2.469694318182535, -1.7906461453029112, 2.453621209012364, -3.408066555660583, -3.371508873447894, -0.4522224770260985, -6.878856589122285, -1.1025902034917134, -4.576394387193514, -2.9585421881224754, 1.246091780846668, 8.355912992003038, 0.3849576183109735, -6.79626648343118, 3.3157155921914354, 2.1884079318881247, 8.11014153149588, -1.6295337999455337, -5.417720113799203, -5.978400553116706, -3.406686568571579, 3.226490725495994, -4.324070336469187, 2.8953450418774187, 6.3939576372724405, -3.184478330111326, 3.9570323415651245, 4.3560235293980565, 8.217261916418835, -5.023304742541713, 3.4224174815201422, -3.4608787297252643, 4.5093387550707265, -0.7932124170512043, 4.23838482362202, 5.454987331860281, 5.14012402103857, 1.4735167993957745, -3.2865730982753405, 3.1382351246319997, -3.926344399602896, 4.54976292520541, -4.433997799539777, 4.399115702175296, -5.603274104428618, 5.657990433127038, 0.8800331565377775, -2.683866663997261, -0.0023685183864374793, -0.550464855703471, 1.5526304671564422, 4.506851073875614, 0.6127331513586745, -1.8247419018758606, 3.3281781870981417, 1.797294405783111, 3.4296708833875806, 7.127904175532273, 0.3748576098727856, -3.3814260382081427, 0.02575946944868157, 4.346760836278827, 2.0795386595063707, 5.046702868314089, 2.2346914670582807, 6.159210935819108, 3.169727760148276, -1.5880251608344387, -1.3425325103337196, 5.600595593098567, -4.526659369153675, -5.09154848056957, 4.338607265792247, 7.1718907953585775, 6.904264537479443, -3.5995906134560167, -2.6322232478991774, -7.363675064002005, -1.571868111398968, 3.64627624846937, 3.5467722110189746, -3.0536490884253302, 1.8759602777702744, 4.147866244460129, -5.300163277046473, 3.1737374107766003, 6.023849756572467, -1.0822401601464122, -3.2769051929933113, 0.3751792766779012, -1.0116437641041731, 2.89718922436031, -7.395851968872225, -2.792579773863359, -1.744593221493544, -1.6317776611261712, 4.0807867326312195, 0.2569780503766901, 3.938435893522791, -2.044275069207889, 8.886798040645498, 0.020830776443296006, -2.009299377567544, -2.7666684752006843, 3.073784576628526, 3.9530879744781995, 3.508067644032681, -5.072575812532803, -6.671008159585539, -2.1943188635156856, -1.4555976013685168, -3.5465638597310107, 5.068511440450714, -1.296822794826908, -2.1193557537623047, -3.721837797563727, -1.8016556110553181, 3.247708786240622, 6.215100014781794, -6.9263665952877345, -2.6465262790357214, -3.4447257189930323, -3.7381612783408817, 2.1646775953059425, -4.538965238989554, 5.329649863866513, -5.262000242239771, -4.248176454712277, 2.241464032399019, 5.540946176123775, 4.076609402188321, 6.418802880111399, -6.095806544665348, 1.21619627269309, -2.7673953113396257, 1.2913965385621138, -1.9905485855845564, -4.214397556686846, -3.771714826945736, -4.868072733803311, 1.7316716609979967, 1.1749559898438098, 2.987096573111258, 10.632487437506594, -1.19845459249242, -2.6826041588469387, -4.881819116389042, -3.9070562155415614, 5.586176243662832, -6.391306294028028, 6.821204828141233, -4.9158728580673055, -6.011182187092408, 8.09160154002895, -3.95381496272185, 3.3788264018981122, 2.0359348137781126, 0.058954538381776, -2.2200275167090195, -1.2313667930576848, 1.0600200732755996, 0.5918152575712785, -1.7766883256599293, 4.0880344073247965, 6.173190408645845, -1.0896410204993718, 4.380021435468553, -2.448869295528901, -0.7025698911618945, 2.9754996156050773, -2.0974200517753, -0.4837599317949248, 1.8607324411735546, -1.8037937597440719, 4.059857128648777, 2.3116037814385155, 7.975741109415352, -3.3412896972887305, -1.7654134787930578, 3.0895770373187776, 4.154179303944822, -1.1006669661304476, -4.519864009098516, 8.837244431773982, -0.22063411810181677, -0.34108402490654033, -2.1881704652089633, -1.9543005431526401, -2.993591382501373, -4.325914593166265, 3.7280189946234215, -2.9342550306544304, 0.3126828174665657, -4.02473565247395, -3.5607850580473084, 2.3904447087785448, -2.3828830087510466, 3.1982959083249822, -3.6731336798959866, -2.0877314150286184, 6.993600332320608, 6.988551018488724, -2.8577731555864965, 1.7228874283004934, -4.404888840836924, 6.446878808530708, -5.717204185434879, 10.07918969790904, 5.032790048898086, -2.1727296982141304, -5.293559365751984, -2.3569873047185412, -3.6240692254407625, 2.7310790187024603, 3.995840199166283, 2.457558047003131, 2.852809155281407, 1.1488656417313954, 3.9295944194044923, 4.506739258098247, -2.7772870399434275, 1.0676150077322135, -1.9693354891818453, -5.037196144416108, -2.7904091130394857, -1.7901442604643272, -2.0663790878520363, -1.0260785013848421, 2.294486978647151, -2.597094742803736, -7.472456813382929, -8.64281255780455, 1.419005615100407, 1.5852319185775965, 3.6191034422032624, 4.077500132267804, -0.625881946880209, 0.5611645831482388, -2.29579877265759, 0.17491096880728874, 10.474117730776978, 0.21214554038012245, 3.3996082393084786, 4.084939890570594, -2.5284726219355553, -5.013551555291246, -0.46272299820839535, -1.5667624392816193, 0.47954636612098644, 7.178900101589332, 4.133565803269359, -2.0148924329615854, -1.092034353561265, -2.4625651110017595, 7.2702237048465745, 1.9154710010814675, -4.937781029804786, -6.395156696068907, 3.5395288179070548, 4.870448077381615, -1.1149317796823155, -3.978889400019228, -2.7126107285859407, 2.33393018894229, 3.9299206610669666, 5.169369834405353, 4.535007659093451, 0.8774771396279686, -5.0866196125067775, -1.8141765549114135, 2.28915690263171, 5.050368213173842, -5.066804918809916, -1.4945935966043145, 0.4170230521978655, -4.675658844237684, 1.9959335194873384, 4.205210349549547, -6.414108330229182, -3.0950408045569944, -3.0647772337644152, -5.491629861995087, -4.563697825219571, -0.6497713515949233, 3.0765558623813813, -5.131329437567966, -3.987284168356706, -0.5522909425071987, 2.876348509400871, -4.686169230816899, -1.8755002986533622, -0.9744070585081142, 7.960957190249604, 6.137226820596131, -0.354901296640203, -3.7088255141155484, 5.96817920029014, -1.986864726023767, -2.4473963455607004, -1.3809070223948132, 7.192362821570106, 3.2282333627707294, -4.262656017561215, -1.345368846258868, -5.941817830536746, -4.338525944035414, 7.879169765724797, -9.495426008911082, -3.3405749910424634, 0.42227257400638285, 0.8441332059871347, -4.267245960754811, 5.632486776557035, 3.9442969621448967, -1.3192678516054785, -5.4733249774713615, 4.62906123727681, 6.148472164072085, 0.020993256278522665, -2.013118295111238, -3.592061786307899, -4.160334863199979, 6.5711308773761905, 1.5335304417040243, -1.0139997232244609, 3.025799346889767, 3.0255803587079964, 3.6766726556220624, 0.039417813981409644, 0.16107874277399237, -5.172137050254654, 4.447841027471912, -0.7472198862363308, 2.449336217892328, 5.498017014041594, 4.3420946466567, 3.788170287436957, -3.761254694318006, 7.1578538107851655, 4.855640452022883, -0.43663001607642027, 10.683290963233166, -5.603863279082865, 2.3392107714345682, -2.0809675427456353, 0.955786909973714, 3.9746255215553807, -4.943679174944472, -4.500394460407073, 6.157472741708362, -0.7340478478796406, -4.729284216068446, -3.4832022124669546, -0.7682819565826913, -4.931112373669151, -3.3767482996179012, -3.4707282028534667, 1.970647857948507, 3.5882499993821284, -2.3183294794561045, -0.04380701350622518, 5.125283980084545, 2.6506892796045065, -6.83014891385525, -3.677862209367322, 1.555461386477798, 6.95433302991952, 4.101683742621512, -2.962168363873359, -2.7296246970553053, 4.999402967367324, -2.8711610268771333, 2.4803217545493403, 4.2783794899167145, -0.4653838731038342, -0.5712321690270095, -1.2983477599819495, 2.453195532433119, -5.715637026852293, -6.319052678029393, 0.5811241021935505, 4.078633666090431, -4.965665530776696, -3.187533689684285, 0.7462559599566085, -6.178531751562782, 1.3779413578202475, 1.510465051309962, 6.151228084175931, -1.238395758252179, -0.8998297696872584, 7.309439282693169, -3.7086890695106183, -4.149950989758999, -1.6320368001159835, 3.874603377895623, 3.9064924548332325, -5.555884308840266, -7.149100425047545, -4.659762846583729, -5.342319619486433, 7.460175744757074, 5.072902808280661, 2.584797998575869, 0.2922457187511269, 5.0169421610853515, 5.360715050772123, 1.919851299552557, -3.060653510655217, 5.922067962564559, 1.4898206933540576, -2.5004539795849583, 0.5091524775337031, 1.9420357194075866, 7.279508466354536, 4.222322474168143, 0.5349100030006957, 0.07488323307997735, -2.263765381370308, 2.3773762076534215, 4.809478033763992, -3.74804285290828, -4.448618503367416, -5.137296457772334, 5.632609208917367, 0.6308976730571314, 5.20447595593522, -3.2691257759241568, -0.4927043286341912, 5.164642030231279, -3.5762581329787215, -2.9040421953615274, 4.238926364419326, -3.8090003001848443, -3.022431581546691, -4.547415959875197, 4.5295423388196845, -4.437358974825468, -3.711766546447385, 7.1503083746020915, -3.120875884979151, -2.5609623784522606, -0.030139185304723703, 2.40679841254567, 6.2949124505917355, -2.84931285294103, 9.138075433614365, -1.0237301823588205, 3.8171295988091014, -3.0829660583231346, -2.718483017294454, -2.351730221731949, 7.257751766567567, -7.935924291403796, -2.57593570301019, 0.3980910362094807, 5.131437601822003, -3.905968466056734, 4.3447635326908625, -2.317686185442245, 0.9089593137633405, 1.1889938849635038, -2.4370371026766993, 4.358322590106114, -4.213380444824288, 4.4916693491028274, -5.399703366663997, -3.9694367118849545, 6.162861696730306, -1.1020901207226261, 4.829760661375782, -4.420721373142252, 4.338301297485313, -3.1026083043182036, -4.585897587649057, 2.203087577620134, -4.981915656869579, 6.366275988384895, 4.052971600667652, -2.778714344218548, -1.9183128074716143, 5.575410533893462, 4.4963600971846045, 9.303527257905522, 6.8417737452396965, -4.9601743392597575, 0.9808937538897871, -4.186297141866349, -2.470091136537996, -2.8650666757265126, -3.648647246886738, 2.0262579012468236, 2.479369566275201, -1.9470183167679753, -5.026177003874975, 5.807616520105046, -3.673704500687986, -2.642934880546174, 3.456153664321648, 2.6949531555106203, -0.010611117566529327, 11.157218801681637, -1.8456586612907788, -4.5063478441669345, 2.4829436507186182, -1.0716846932011386, -4.606433688459272, -0.6587269729894123, -5.087289828087683, -2.1926935471561784, 2.9571065244205146, 2.924893407841762, -5.318905244232174, -2.1283637358462544, 0.4562337819140443, 4.102271375985743, -1.1031023762570142, 3.7069533190908865, -5.17923494420394, -1.2621454027617203, -1.8318215235156403, -1.7469631573245277, 5.7413651001682835, -4.102929348673071, -4.984240326184964, -0.7578386565492532, 2.5060083110818523, 1.6174150020572267, 0.5434802851198008, 0.9213968770566918, 1.4857851278481782, 0.8009721167619119, 1.0376117238779412, -0.596781418311239, 0.2440302827664964, -5.81409520771079, -2.535249494704056, 8.894973436968996, -1.1168554862309472, -3.763269712867743, 5.309811353545664, 0.2673454192217388, 4.068195591350934, -1.1592419242313823, -2.7373043060676467, -3.4526755561369296, -0.5361715992511424, 1.8376549830496525, -0.16956285274451766, 5.079958973133911, -0.41523816470419694, -5.045422260668352, 3.4305600982531876, 1.2800753278116095, 4.4758360573914535, 3.476042648359231, 1.6755683954128964, -3.563131436707738, -4.294743415507702, 1.0535391686596256, 0.08457167547610123, 3.62530824152722, 1.0331045219364512, 2.9705448730690716, 6.134987812491883, 3.3517292169123234, 1.0151329234225566, -4.449082107270184, -2.3383888403477453, -4.112723584829101, 1.4772045625890078, -3.0018581876278896, -2.1416631463050573, 8.33674696453799, 6.0148531110504395, 5.238566942063193, 1.1792647765426625, 2.823542188161073, 5.771207065483783, 3.329621456041, -1.798110486229057, -5.13072368432725, 5.05638729895745, -4.869087203211488, 1.9958929185651737, -2.8381487141481916, -1.0627641538719734, -3.985045356199648, 3.295279427249689, -3.7206725289421083, 2.110298556382526, 0.5514363913068232, 7.057554568709436, 5.774063514250306, 4.292166563542661, 2.0210299847179822, 6.874456299081388, 8.97763914275528, 3.124647326473271, 5.7887480317428235, 1.4682487144646421, -3.2216882567622127, -2.5346489751737638, 3.6906480137956237, 5.485146644754687, 0.6824318310914381, -2.058543097548016, 6.116130937064342, -4.120920888779158, -6.125895769426704, -3.293094048916683, 2.640824761357682, -5.442034626667806, -5.035040413805232, 2.498361761063255, -2.8307266115773926, -2.341490204044052, 4.420773423832624, 3.0048775045056093, -5.278927052339296, -4.339774918279667, 1.684409770512262, 0.9342594440006775, 3.611392261910453, 1.9862600207343233, -3.0062452464783895, 5.5597075174491275, 6.786501084844553, -3.703974584530954, -5.06634811968646, 2.8085799405816907, 9.74887954063691, 3.1254941888243497, 0.4770126244720996, 2.0642268084411555, 5.674990821257487, -3.5916402755638357, 1.0810576026448566, -1.468291010473847, 5.985710990494738, -3.233552091695274, -2.8428543713111054, -3.491527603465248, -5.068891074754899, 1.1486929481363548, 1.019317954860088, 1.0589116165862404, -6.1736453245440215, -3.451391325383123, -2.984379442287156, -3.9232017313301846, 1.480289904617437, 2.58637267165334, -7.3941687333711625, -5.7548366700430575, 5.823038475303722, -2.111951511236607, 2.779302502255173, -1.8124551487403462, 4.82862449611273, 4.9721582946570875, -3.804170983542458, -3.7981826369445892, 5.509405075724454, 1.5062732086080173, 3.6888375255660755, 3.4954618130538186, -1.2612773612810684, -3.675134540250684, -1.0104941943957542, 7.78082575701344, 10.616769594796565, 2.710895968060134, 6.0084258508996875, -4.985027259267306, 2.3741777814550593, 5.912303902308828, 4.271349367598221, -4.192698357362908, -5.458646730738477, 3.8863532554667906, -1.967637114835295, 0.7062955781433606, 4.812136643918655, 5.229693010039707, 4.709356093087409, 4.613067459798176, 0.010672792130589137, -5.722710950705413, 2.7638286024342014, 3.2776716075279966, 4.7256057263406195, -1.4493620190456915, 5.367889507757983, -5.088188863095218, -1.3417975873290073, -6.30591092663236, -2.682666466647328, -1.1254724174871007, 5.133897135102098, 4.671493879506022, -8.664849826588668, -2.7986674020602775, 0.018073921023944006, -2.0478322043231003, -0.2041379722322727, 1.379343738505579, -5.43452436895407, -3.023651655761819, -3.802695261256387, -3.9030547902869035, -1.4757940036600568, -4.720602315792452, 4.306239699030852, -2.101187032829852, -1.5234145031328286, -1.3319927361630324, 4.277095582165062, 4.98945942481653, -4.056579343291294, -1.0278999928477766, -2.015285188838642, 2.2224542652323063, 2.422576667829736, 2.5448001340682813, 3.9702965252514497, 3.145911196072901, 9.338844698969407, 10.175392645318226, -0.07511204234482172, 1.4298222202059119, 6.107740593932923, 8.093570514868272, -2.9713234511614077, -2.448534753766566, 4.454802704770738, 5.238752083712359, 0.3745608432802827, 3.1367423138863604, 4.0802935707667265, -3.9517175440125083, 8.127461565270167, -0.4180473934967859, -4.311042134768759, -0.9314614840814506, 8.307939895737292, 2.694264649175058, -9.4338365877223, -4.527529106974951, -5.290410072784241, 4.806675031155266, 3.0120557479220817, 1.9746534562278804, -3.957727782913431, -3.689008254646814, 3.432920114432429, -1.1267713133188386, -6.1576798594259605, -2.2152773284176464, -0.46828786107590803, 0.8050904585571237, 0.8066418286767756, 4.59939080512924, 2.679627231554539, -1.201569631388482, 5.01282116846126, 0.08106294830881744, 6.03395936757182, 1.8269593142026181, -4.0632525360541605, -2.002712612743472, 0.3716119766341701, 7.13567784697513, 0.3481716974056157, 3.710591922128101, 5.821307882596414, 2.5801300668087856, -1.9673905751218834, -0.2613159343252658, -2.5624893553004844, -2.3066942925603398, 3.081595377796053, -4.30074027849859, -3.304040207298508, -2.3856737565861765, 1.0750450804737532, -3.709594507353203, -1.0599712011046991, 4.682862899011257, 2.7079392982040957, 4.400797244240767, -3.14359774156393, 4.190691985631549, 0.413044976698969, 4.262819299992019, -6.549949605105412, 9.435730155795781, 3.54346484370212, 2.1195755792339996, 3.334814238632183, 3.5735930673301537, 7.488448959835222, 2.849724152986096, -0.1122031501177716, -2.589391922639285, -2.4704000278990206, -3.181515692429646, -2.596361815357567, 1.9755740562637576, -2.9978784267198924, -4.3246197421612145, 6.402745460170556, -2.8605784650163804, 5.101173120350416, -2.6766876047778796, -1.222230079733985, 4.934312418120343, -2.4021465353600586, 3.943473548119252, 2.9129145341847433, -7.382811684622289, 1.0531233640803226, -1.9552173844163505, 1.6883754972331078, -2.9546031113335207, 4.976668741174928, 3.9366065483784203, -3.1658001838297256, -4.380415265061875, -2.994101186572842, -6.362108861666434, 5.877027031659639, -3.7443343641141187, -2.702137764438336, -2.253719951563008, -0.33080700448367484, -0.3747918762732314, -3.236535214036592, -2.6079760436613064, -2.696159442279729, 4.618011172558633, -5.937875692787196, -2.997041106201377, 2.610113180838674, 3.5544690508968726, -2.0246356436277555, 7.990298251830626, 5.885717587659187, -2.384417663400999, 2.197037446964819, -1.9780050579270165, -3.1064815572575286, -4.098643626735812, -1.8186119744511906, -2.4438396677327727, 6.497989325088327, -3.1824612505982186, 3.6432855584815416, -3.205142749725007, -4.127758932364958, 3.7290650720668017, -3.3459728390469854, 7.317881158248546, -6.216984564671793, 3.72044354793133, -6.9914996846181365, -5.799421725608595, 5.722795867236976, -2.7716774145750316, 2.178707127094123, 6.87992981034528, -3.7036656733021722, -0.3569820893599873, -0.9711689168881179, 1.510596117951652, 1.5692690337765223, -0.20043052541988438, 6.2826506979137475, -0.2701854448414247, -2.059682046615377, 0.6903677773416863, -0.3512740434203092, -4.068736998129288, 2.8562919465917975, -3.518740824721979, -0.7915264059453078, -1.575366120279324, -4.67352179329727, -3.38714749138418, -3.899645542451821, 1.7891042396298267, 1.2893842519230279, 2.459221836731012, -2.6785027123655416, -5.03010898440182, -5.032243399621232, -2.6572019230897306, -1.657500368928103, -3.01817052939763, -5.927754948555001, 5.101499017885111, 8.187354725143162, -2.8598547055069705, -5.413481976108113, 9.055513040663865, -5.3564327665895695, -3.9865108964216827, -3.7861546072576653, -3.169463973698308, -3.4841242020344447, -4.715829149342166, -4.495055270794394, -5.45621718644506, 7.722426921374857, 5.615841581363199, 2.412287824975598, -2.9687996509671253, 2.9224998205941537, 1.2845900604988998, 9.565509009539564, -4.689914347411897, 1.8010908343236958, -2.778985865122565, 3.897780341640008, -8.007630185075413, 2.9518097738888045, 8.60796039429134, 4.563268423887244, -1.9052985974581116, -5.324084674565378, -1.774049734554687, 7.726368547209375, 0.49458557326546604, 1.0099329390364495, -2.527517249604492, -1.6733867510033074, -4.931590252924775, -1.5972441420669146, -3.3520501472531246, -2.5720465372821595, -2.060088502701384, 6.107825578897471, 1.7094880271653934, -2.8494514168354614, -3.338194891059948, -3.925008336457342, 8.966772194727511, 2.7648719379873583, 6.193580768070205, -7.616805637933882, -3.0989035927282886, 1.5517957128187563, 1.6171601616761033, -5.311733748814611, 6.934545238860863, 0.08562937958578853, 2.4872894936710903, -3.745962117483037, -2.038600079276068, 1.7122588840226336, 4.964088083551799, -2.2966925716068136, -3.9587683952317674, 1.2611703327675592, 5.454764428141881, 8.674941869303527, 3.9013411386739056, -5.302981231339362, 3.93382813748116, -1.5034519890857752, -6.345662340755749, 3.5809587475229714, 7.920601828476845, 0.9964418928277907, 8.432199543981262, -0.9039044923808279, -5.247638574216601, -0.727049939986923, -3.1004803266051235, 1.8359710541171759, 4.781916357929445, 1.8921087410064032, -4.787695916016989, -4.175580667772997, 7.533585079553725, 1.9309564590867154, 5.763229591484521, 2.357838887523763, 3.533966016618489, 2.0207517535881445, 3.985614203970253, 3.8226140501032493, -2.58217722374203, 6.255292328388893, -1.3597690947260892, -2.7006543268990226, -0.9109360538847304, 4.940702154064866, -3.1377038136592326, -1.369636067628743, 9.824425355432382, -3.6880027356536127, -2.6585048440015147, 3.679481555368252, -0.897865771905404, -0.8407493309376863, 4.265150686676264, 1.3607862456900826, -2.2716685462003268, -4.335137436795931, 3.6026332021943466, -4.2335047957535386, 7.107061287519483, -3.9918507869090734, -5.317330958875802, -5.367989462945686, -2.1630349363036006, -3.2935240296798254, -2.3720515321311986, 3.5784595505958823, 5.652950545347663, -0.22331135905461696, 0.20226365395397394, 7.663219710004316, 1.8636634577126867, 6.266150901489383, -5.523094937331183, -3.894165346291193, -0.5448664084980899, 6.106207910113391, 5.737064967421122, -2.556820946831297, -2.6025590621731594, 6.926579673027603, 1.5071967926710168, 0.4675198209237421, 2.940601445553412, -3.2156242819595535, 2.3821022256379516, -0.030817471851825484, 5.533074280666927, -2.4896297677791193, -1.6917217350128118, -5.219010585756085, 4.462132241913276, -3.31922555930759, 10.140917057804113, 1.6268826793447566, 1.6562963317483828, 3.610660702080736, -2.72821059564622, -5.262512134531148, -4.923991746911562, 2.23701475307944, 5.938145399017436, 7.239818051289286, -1.026749666028405, -2.489055755715678, -3.7919365565181744, 3.1110482182850525, -8.29437819902778, -3.6143961614893536, -1.5701351072789849, -5.793159677895134, 8.057156370135402, -5.809169220808035, -5.039147970824388, 6.068840049424305, -5.683959138584796, 1.2153878419005824, -3.4004173051151616, 1.6580163406989348, 3.8582741341415163, 1.3162622772590242, 4.319311516932949, 3.4238631976377985, -2.3470661787151723, -2.6858291354685706, 2.378655228182719, 3.3265251233749495, 4.462736557548361, 7.522619077648009, 5.228733281940072, -5.604865535591297, -0.9761905094287657, -6.926788738384263, -3.6724774565569556, -4.00734153841933, 5.947546594057603, 4.946795470467548, 2.648034235646702, -3.732243110620413, 4.168734372356313, 5.413627447793441, -3.353146104106954, 4.674763749246236, 5.351265414712549, 1.151973458999631, -1.1730291425433368, 1.8287204021951506, 5.709340141469136, 5.966642915665441, 4.444942966764801, -1.498222844105495, -2.173779702826349, 1.2480473946433435, -2.1619093680842063, -3.538952453764379, -0.5327242338209301, 4.062791556355586, -7.805106925484984, 3.1659315443344527, -4.129651082538824, -6.597696151166937, -6.069775012395149, -4.512228576030178, -3.8240594885081265, 2.4941066891825043, 2.713879982779651, 7.019019570021373, 7.534127257615661, 5.575255523238733, 4.993402969636859, 4.113767945302455, 0.6139553878453405, 9.008145189017064, 2.1255392368427497, 3.878880135588223, -0.5323662968683331, 2.980400411472817, 5.151817879906942, 2.177315594834905, -2.558589326632819, -2.048920907969154, 3.459810897589213, -4.731693312661063, 5.269873313173725, -5.92213129540663, 4.44423680054291, 0.1284293911268306, 6.753792022694859, -1.2078287442127764, 4.149386706298115, 7.365427586908093, 3.5062248442375363, 5.849324139213443, -2.937672650764993, 3.867692711120114, -6.411122216117774, -4.2852292159661864, 1.8571740842677205, -6.366427792425475, -3.432373282510892, -0.6453955600887165, 2.680344472082539, 2.3594639342595576, 0.7822742082997332, -6.726867174483853, 6.1753356014282845, 4.170709151006651, -0.2785233325514369, -2.0895836511214076, -3.8782412402239483, 2.4854674236915884, -0.32881513714696453, -3.9421581583366203, 10.275834942743295, -3.9409802730795684, 0.9887498178196621, -3.179037591252267, 5.733769648030216, 7.043372955035676, -3.9395434054427474, 5.61361947887565, 3.1978256816680615, -7.416399313473543, -0.9277707278868976, 3.516609586259314, -3.909611938126372, -1.7586668358216913, 4.078820256358124, 1.4991567910424841, -4.074487147192409, -0.5006327204814576, 6.743085280502833, 3.5494915864749004, -2.183605267403675, -2.5203597607214245, -2.849860664072037, -3.617376675657767, 6.693128441247851, -2.7708048471333964, -0.304959526764474, -2.0147563079635757, 8.89218465719889, 6.2469123047356385, 0.9947007047214775, 1.7619053269440115, 7.638343458684591, -4.5767171164583935, -7.5771077857485905, 3.4955808503167285, -3.511341208520606, -4.648931593545075, -2.574477655105226, -1.7041976344151042, 6.674271497360338, -2.886740495798744, -1.7710438174922656, 2.3390051294751135, 3.116248315339183, -0.34180382020323563, -5.330483533621615, 11.22777140005876, -1.4909459734696027, 0.002957693896403324, 6.995846162568102, -2.2225306578567823, 4.026406092282389, 2.5558755049291513, 6.304160589259886, -5.652826680531709, 3.178956980721832, 6.051137078522447, 6.332852829478656, -6.8476038301773015, -5.774356648114812, 2.508893590307837, -1.8153011851098544, -1.0331891704306355, 2.008294809466703, 2.0144324472738373, -1.1163639184520653, -2.822137763250904, -1.8567077472521216, -4.003060153468039, 1.8696028386902683, 2.3365223746817128, 0.9257027023468205, -1.0824931660956048, -4.374954520831136, 3.2710749732550255, -5.120393248890648, -0.4541178478143393, -3.0718017284950685, -7.12676912361865, -2.009606473472328, 0.7861103731116197, -2.076694042313087, -2.1015398258391995, 7.597490163089392, 3.95392962371505, -2.902005397576807, -0.4775758379415418, -0.6019293158002492, 0.12338903470497176, 4.859864995470156, -0.5377514959168508, 2.2636160604514517, -3.949865906625589, -5.552900156250913, -3.000377677230577, -3.452214045931572, -5.120667102785003, 3.090829221245966, -0.9231706745053674, 0.7843407304075956, 1.2590476838724207, 4.234584830538811, -2.461977781855584, 8.86424839339853, -12.847760199529574, 6.0951049323646584, -2.5401136992473656, 2.6728628039627598, -3.162635578847368, -0.5453084668783985, 0.402885195631439, -4.013549004909442, -0.9350186178547317, 0.8177748419622777, 1.8717177681272728, -3.2304797310428093, 2.8834367423488168, -1.7097066514598476, -3.766715238496638, -2.991829088471458, 8.299649972897509, 7.419620103295631, -1.9545971399452489, 1.016892239940415, 3.1911995179406327, 0.8903682893986136, 0.11467569388532173, 6.728378704345912, -3.305592705837956, -4.012646846750345, 0.671218439808678, 4.569952190540725, -4.057492244701174, 6.721242647484103, -3.5169746172330303, -1.9945176428324505, 3.21443566590378, 5.45189356816561, -7.447689458805804, 5.349358762787782, 4.485002363281674, 3.5601655827002343, -6.897095851495851, 8.909245172663692, 5.844706923347942, 6.840210439847364, 4.979556026952732, -3.8103756903876995, 3.60690352383748, 8.852349843437871, 2.889039574414836, 0.9308866109931335, -1.6937745455607054, 0.998134899079278, -1.7110308449206952, 3.0767462568787636, -4.945143495131362, 4.718712897791253, -1.9766423017985737, -6.204809453168379, 6.736929149855711, -1.5396173384922198, -0.60189732251186, -1.678615762810935, -4.7659333679642994, -3.5853929301720493, 2.4075434074517066, -0.27603198222030345, -5.27734262683031, 5.912534894266643, -10.464817978984794, -6.465299911679298, 3.5390585498306404, 2.0870231460804005, -4.29591679207113, -6.181277181740852, -1.4791980205058306, 7.670997636964512, 0.5703938260825931, 5.358068582454451, 0.30020796517470627, 2.716736981326484, 5.119542736677484, 1.334029453903443, -2.5159877307824505, -4.866112017136346, 3.401760778667777, 0.009036985428111155, 2.1053561855727327, -4.998432142135427, 6.997867665523176, 5.377680427078637, 4.4270647665065015, 0.19538074119931537, -2.6294415780131883, -4.029974142769212, 6.15295343467712, -1.9847501831493757, -0.9656949816349387, -3.3974946541650413, -4.905840653513017, 3.3500022788756016, 4.021860248199372, 4.023718199429834, -0.8251458427728231, -2.250791170870559, -2.7346512249232946, 3.8889210708546864, -2.9444006910496503, 0.905448523782348, -1.2293224674885121, -0.6541935398743677, -4.1501573258143845, 4.85596324554863, 0.6053401387441433, 4.287374720184942, -4.412705561084141, -1.5943160355591006, -0.9505347866293432, -1.056024089936011, -1.586448779281712, -5.693472522120207, 2.8943294049429458, 3.010941478662555, 4.893223167019859, 8.401883252768972, -4.8151400494694885, 1.3246985090069945, -4.064728802924197, 4.982800350426181, -3.8872085171881716, 6.2525700744202934, -5.395312642992759, -1.255249924357278, 2.231075352743944, 0.27879094946000826, 7.23166227893165, 0.01070742697899929, 0.9858368952612424, -1.4069089742536702, -2.006251516769045, 5.649985486836734, 3.8372615902185903, 2.5724310690833567, -3.973007523518654, 7.241546004174121, -3.0925419902015197, 6.032445173664574, 1.0808112123559668, -1.5177790866070802, 5.577293098341366, 1.8384920854543312, 7.979320031681978, 4.187971208259144, 5.035543034305814, -3.8322788647388544, -2.7930662386031004, 3.210633214897702, -5.946649028194336, -1.696991455523193, 4.7639971450653995, 3.443247920625298, 5.509254521581799, -1.7733105967692393, 3.294587713350378, -6.263794325910971, -0.10050189390107711, 1.4956453845392161, 1.1850851777447295, -4.700244062624459, -3.8337119034542253, -5.719423288188721, -4.436749523263562, -4.9866542927069375, -1.111102871150527, -4.026783175361924, -1.103869287493393, -4.9867056245902015, 4.277969414513277, -3.460455543227104, 10.188623333719178, -1.3880393534176587, -0.2799774803964663, 0.8660303479911908, -3.366951368821735, -1.6787995040795591, 10.123156924081204, -0.7015102830737092, -0.18694489421290328, 6.373592187077999, 3.329062967354548, 3.9965973333196194, 2.6489630409196314, 1.0970407010015557, 3.602959584439744, 2.808040779649569, -1.020246057094099, 2.563260181269925, 3.9493825244881293, 2.2867528767133942, 0.9302128609215004, 7.264518424812892, -1.3759889128822143, -5.196898600143201, 2.5540396622013626, 8.442965441746104, -1.0328235265068848, -2.983312301724511, -1.9425212129927374, 4.3655395417948055, -2.7902128036033016, 1.4080033282117497, -5.887433710264829, -1.0993077945549108, -3.7803732127634264, 4.038083182584568, -3.2196553831261143, -2.212409390531164, 1.2795726336368074, 3.235409625198411, 4.813183679871146, 5.150171582078194, -2.8543823514105435, 1.789338665886779, 2.417111130626706, -0.18060889619724296, 0.30372548060909255, 3.3467081532171665, -7.8357260681056315, -0.37819565370265007, -2.283169311381564, 9.829471033779942, -3.0987220033991774, 2.166780997497807, 2.8618797781481264, 1.711575401993426, 6.460300453864144, -3.090099946589964, 0.4823944639466169, -0.2753708724221875, -3.740956850211889, 2.2257097769758056, -4.546019220541147, 5.709602581859911, -3.2203222917407954, -1.1788568825495709, 5.6052499203840505, 5.299600121439949, 1.7335104011864182, 4.050209036546409, -6.201815293776437, 12.286925129122807, 3.8564626496072396, 1.1039164919342834, 5.149574399552352, 5.214544793473784, -1.0532714810849404, 6.911957724880762, 6.5814524594475055, 7.005438756720392, -4.549734398432872, -6.004766031473355, -5.640123252447707, 3.6425468018085105, 6.011572654977256, -5.524570879251914, -4.170012346301372, -3.974795480538811, -7.815013716210362, -3.095723852991304, 4.206050729200437, -3.286431491287032, 3.8127127289991396, -1.9590827278064697, -3.4471511264512253, 5.766409115771205, 0.3498445245369477, 7.266525955588384, -2.352276228880478, 4.784045889510958, 0.7129112661710506, 4.841014206383612, 4.925954263530141, 2.907937844421131, 1.9984678482608036, 3.7814555776188126, -3.0620565164222073, 1.550899775248642, 3.4203805650680703, 0.011928110305403195, 1.708993601088845, 2.703775457224717, -3.4266925948019527, 5.143975392513863, 4.809280502110694, -2.1618027849468566, -7.795058087849731, 5.990775553659964, 3.5343728680095756, -2.7258070093951643, 3.8341584116707406, 0.2866661858743087, -3.9104050426452455, 3.8694130946458465, 3.994632776129432, -1.0106846820648636, 0.4364655474786363, -3.675140966222491, -1.9055423236792306, -0.8051530506292748, 5.414910426467198, -4.745990225576635, -0.40444902023628604, 0.7548356635579387, 9.311200415699911, 1.7807414766603569, -4.723794305065726, 4.508768854925473, 3.0274285401235748, 1.5513369819861698, -3.850038362024643, 6.910030440061365, 7.339173147842916, -6.683079825756951, 1.6446084367105147, 4.1699579758410295, 4.231704796679735, 4.451022295597095, 5.206557048839763, -0.21326241015573455, -1.6145394590703264, -5.799283580275128, 3.676699774615857, 4.50000518173072, 4.818249201349213, 0.07639158460521278, -1.7285689196799532, 7.81804197017343, 4.606304319288035, 1.4806640374895519, -3.7493161208402386, -5.60760463458032, -0.7825594250167294, -4.01360978915038, 2.5537395437274775, -6.524422059897463, -2.062934387855737, -3.0944614613080024, 6.596634311434989, -1.170214037563181, -3.9009227150983534, 4.780302091162196, 6.455399804062503, 1.2667368205849407, -4.612986442707264, -1.6246334389007688, 3.133590296027206, -4.704497639525667, 0.15446082012699813, 7.898704614675874, -2.8276523139605336, 1.7592737705305455, 0.46499647299584135, 3.42474725615458, 9.318905435402648, 4.530958393309577, -4.066493171298013, 7.723626651250004, 0.8509413512437174, 0.15158007618468616, -1.3393929667660371, 3.6733469293862617, 10.143795288211876, 5.9471192726866065, 5.568955411718077, -0.8267377387865693, 5.625581396815298, 0.02655818344856442, -0.9580142269869594, 5.476458525313265, -5.809451100533351, -1.1575908642418349, 5.102862386941915, -4.577166411028861, 0.5464047307116582, -1.381519255297015, 2.0088421244617978, -2.860657133893042, 6.134413156986704, -4.108702222252911, 0.1431676903954857, -2.720213059055391, 3.328299283604644, -6.493164637676776, 3.84084742291129, 6.5195877618275775, -1.6776396114907839, -3.404714714348949, -2.259043549524921, 0.9170572565723463, 3.9740281506518382, 0.7719962864621301, 2.184472590045261, 3.5474567096208487, -2.72530416708158, 0.4120707807125368, -0.7322253150622973, -4.633482626280567, 0.78537493479537, 7.1177099042605425, -2.8043071992982265, -0.2903456582426842, 2.3983584546818637, 7.468997173515727, 0.8848959508324485, 0.9734987049586183, 4.336750677219853, -3.5324368604063627, 7.300430768387856, -2.4295412197633848, -8.42387449092406, 3.1822279097944657, -3.4785421563262853, 0.39625672383698474, 7.740875120812807, -2.3013577823309834, 0.5519465152622249, 3.4894231892114176, 5.158395630711897, 6.364595307338074, 6.092059044363693, 3.7682827229426383, -1.411499555970531, -1.1181298357297305, 2.7608374392648516, -9.203023178736473, -7.007191072319746, 5.933020775788873, 2.5604567925598154, -4.692167934903557, -2.118609182427856, 4.958717958186173, 4.654263536082037, -5.374386002660015, -0.19122703500241478, 6.589013591394015, -4.88861510502758, -1.4476528222912828, 6.612459041806095, 3.2801222567970196, 3.531167209757583, 1.8323823688945136, 2.515928527827378, 3.5202169992515904, 1.2339125908763964, 4.891439447643042, 5.362408934789013, 4.941260645034771, -0.7405207228876289, 0.1821197752339514, 5.383066146777943, 0.5095022871686803, 2.7333237586553345, -2.2395226138398696, 1.6053180083166065, -1.205669462720484, 3.078683298511499, 1.40864898959496, 3.5657532529746456, -2.766407754707653, 0.15035845656899882, -6.041498445526927, 1.1200336483185827, -0.16048001235638854, 3.665783699608296, -2.33135045363691, 3.607602115431204, 4.06765301440505, 6.14602409275103, -0.00656229615134496, -1.5551965652174777, 5.250268983162536, 0.2965875177274899, -4.38922462403237, -1.7326047124242292, -1.9504598966790105, 4.636845733465846, 3.5387655845770425, -4.811645710355846, -3.5504991056713395, -3.219156356203178, -3.4296514005612924, 4.951777601179159, -6.667250824524888, -6.22831393806123, 2.0366404692563798, 3.2452333994382148, 3.9813123178983467, -0.8468385910529435, -2.1520210664051485, -4.533267696517677, -2.251019170428508, -0.09342936162618365, 3.4626839465260364, -4.7600372109908955, -3.2897152613697633, 2.4890332281119267, -4.378995911942256, 3.6225346585141, 6.432258662229182, -1.3948927505339093, -3.1865842272170317, -5.3450893592046915, -3.3631885490442963, -3.714823310698029]}