[{"lambda": 0.0001, "w": [0.6075418398351969, -0.015387325973086308, -0.06435763671177934, -0.039368507698099756, 0.019635830530341347, 0.09585737161657312, -0.015387325973086308, -0.5730852005423583, -0.06845294616959795, -0.1055393454475058, 0.01660653339121754, 0.03987841132838055, -0.06435763671177934, -0.06845294616959795, -0.17592103464576314, 0.24234068683039497, 0.02984898663841059, 0.021154006297065, -0.039368507698099756, -0.1055393454475058, 0.24234068683039497, 0.041382048327733754, 0.02083101211226837, -0.11784556813563649, 0.019635830530341347, 0.01660653339121754, 0.02984898663841059, 0.02083101211226837, 1.5612873959496016, -0.1510004127272742, 0.09585737161657312, 0.03987841132838055, 0.021154006297065, -0.11784556813563649, -0.1510004127272742, 1.6749376425762899, -0.04069172794315402, 0.009721900792984786, 2.594308287737254, -2.6107578334544463, -0.06215128556123187, 0.11602543055532362], "b": -5.318042386956393}, {"lambda": 0.00031622776601683794, "w": [0.5854722017830438, -0.014868005306164299, -0.06251827319895445, -0.03526941176785104, 0.017907477573151698, 0.08821636641375862, -0.014868005306164299, -0.5600560172705512, -0.06539201555969194, -0.09853802407717915, 0.015263288727003388, 0.0385254207297639, -0.06251827319895445, -0.06539201555969194, -0.12965413764859576, 0.19174916156008823, 0.028262679195708067, 0.022384044428595797, -0.03526941176785104, -0.09853802407717915, 0.19174916156008823, 0.0660932811777235, 0.01944817849286274, -0.11136164466808732, 0.017907477573151698, 0.015263288727003388, 0.028262679195708067, 0.01944817849286274, 1.4963731862655203, -0.14135415561042958, 0.08821636641375862, 0.0385254207297639, 0.022384044428595797, -0.11136164466808732, -0.14135415561042958, 1.6008104949494193, -0.035711601315849384, 0.012908314866811172, 2.4579047796024183, -2.4789938482231557, -0.06194654895143406, 0.10975870539967063], "b": -5.144331039381449}, {"lambda": 0.001, "w": [0.5394340726059764, -0.013535468595735553, -0.0589194283151375, -0.027896330249201743, 0.014619226332832304, 0.07310115663526519, -0.013535468595735553, -0.5285638798766248, -0.057241408706675434, -0.08388840646547319, 0.012034291884772811, 0.03525811286559843, -0.0589194283151375, -0.057241408706675434, -0.047744474826733475, 0.10262232296979851, 0.025516712484417253, 0.02277057928678203, -0.027896330249201743, -0.08388840646547319, 0.10262232296979851, 0.10467549655998577, 0.016187708825500483, -0.09752359469676594, 0.014619226332832304, 0.012034291884772811, 0.025516712484417253, 0.016187708825500483, 1.3528226837104598, -0.12092260355615383, 0.07310115663526519, 0.03525811286559843, 0.02277057928678203, -0.09752359469676594, -0.12092260355615383, 1.437346745294315, -0.025880162983875497, 0.01725481654010607, 2.187386363768937, -2.2146454884050226, -0.061120444620591664, 0.09659195371119136], "b": -4.770859771032964}, {"lambda": 0.0031622776601683794, "w": [0.4673196684691855, -0.010775143948345929, -0.05207241575722741, -0.019828971112319287, 0.010258950894722474, 0.05091569318712816, -0.010775143948345929, -0.4686653946601103, -0.04223013924913599, -0.06006302388002745, 0.006225603515347796, 0.029169129841328845, -0.05207241575722741, -0.04223013924913599, 0.03523608754718876, 0.01219484842191738, 0.021242507400676937, 0.017925309002359727, -0.019828971112319287, -0.06006302388002745, 0.01219484842191738, 0.12614670136477216, 0.011341791915137064, -0.0752226966215142, 0.010258950894722474, 0.006225603515347796, 0.021242507400676937, 0.011341791915137064, 1.1125241553072602, -0.08883953638911099, 0.05091569318712816, 0.029169129841328845, 0.017925309002359727, -0.0752226966215142, -0.08883953638911099, 1.1662773711148884, -0.013486209548107744, 0.018930573500771666, 1.802171515950751, -1.8302025734793301, -0.058425752676442795, 0.07566340971550817], "b": -4.168231529023361}, {"lambda": 0.01, "w": [0.38277578741391616, -0.006880317067224897, -0.04103131499916145, -0.014228884399887246, 0.005612338706504427, 0.029438891242870097, -0.006880317067224897, -0.3850946946184513, -0.024132402932965407, -0.03348474444323118, -0.00039767979979156827, 0.020915329154295254, -0.04103131499916145, -0.024132402932965407, 0.06986821522023676, -0.03189749334278823, 0.014456885721637811, 0.008457411296305069, -0.014228884399887246, -0.03348474444323118, -0.03189749334278823, 0.11016420173912307, 0.0060487064721850906, -0.04943146040329661, 0.005612338706504427, -0.00039767979979156827, 0.014456885721637811, 0.0060487064721850906, 0.8182564625471812, -0.05246216185608271, 0.029438891242870097, 0.020915329154295254, 0.008457411296305069, -0.04943146040329661, -0.05246216185608271, 0.8378936303503874, -0.003493861162741661, 0.013685475839759865, 1.37693969678939, -1.394947105118253, -0.05242306625679079, 0.05211726134109908], "b": -3.458486925511675}, {"lambda": 0.03162277660168379, "w": [0.3010018808400863, -0.0033205411641829183, -0.028566803929142074, -0.00913477935915052, 0.001601581445729141, 0.01498848771565262, -0.0033205411641829183, -0.29444851092271684, -0.010561739994652486, -0.013240784811424438, -0.0035726170299708168, 0.01302984915805567, -0.028566803929142074, -0.010561739994652486, 0.061466090653983396, -0.037216325002359524, 0.005870485102707945, 0.00122181516881249, -0.00913477935915052, -0.013240784811424438, -0.037216325002359524, 0.07763865592672545, 0.0013279912296061019, -0.027363758110044607, 0.001601581445729141, -0.0035726170299708168, 0.005870485102707945, 0.0013279912296061019, 0.5376012760892777, -0.02351121532576359, 0.01498848771565262, 0.01302984915805567, 0.00122181516881249, -0.027363758110044607, -0.02351121532576359, 0.5337422327441271, 0.0008465524918315726, 0.00466723978645759, 0.9597028241794532, -0.9670435669281406, -0.041920677588589944, 0.0319541701413238], "b": -2.831841357966048}, {"lambda": 0.1, "w": [0.22359805562885718, -0.0018608362744404836, -0.016828436804979575, -0.00381468716702702, 0.00017976290464782386, 0.007976557818614864, -0.0018608362744404836, -0.2068162243024831, -0.0035977108124307885, -0.003080569407640345, -0.0024120270570785677, 0.00663637625419359, -0.016828436804979575, -0.0035977108124307885, 0.03795418582727363, -0.026422359145169605, -0.000427215967372722, -0.0021802599820581504, -0.00381468716702702, -0.003080569407640345, -0.026422359145169605, 0.04674860627714536, -0.0011591585756213234, -0.011414734780959938, 0.00017976290464782386, -0.0024120270570785677, -0.000427215967372722, -0.0011591585756213234, 0.30824088634096874, -0.00775222780279116, 0.007976557818614864, 0.00663637625419359, -0.0021802599820581504, -0.011414734780959938, -0.00775222780279116, 0.29810955518671656, 0.00027340543376974945, -0.001589628801079141, 0.5824157802625549, -0.584937722225645, -0.02747666294288548, 0.01710032872577461], "b": -2.401110905930195}, {"lambda": 0.31622776601683794, "w": [0.14096748150916086, -0.001356629333469519, -0.006933731370761036, -0.0005482561894737601, 0.000361637657487729, 0.003895173681815085, -0.001356629333469519, -0.12415690350741992, -0.0006901012589944776, -3.4312480754836466e-05, -0.00025433037924315303, 0.002064289046835021, -0.006933731370761036, -0.0006901012589944776, 0.014598078158415354, -0.009869542986001324, -0.0017755836153691006, -0.002864081119267854, -0.0005482561894737601, -3.4312480754836466e-05, -0.009869542986001324, 0.019969391043972152, -0.0009217230985771392, -0.002342908835831435, 0.000361637657487729, -0.00025433037924315303, -0.0017755836153691006, -0.0009217230985771392, 0.144224521136923, -0.0018706042532792497, 0.003895173681815085, 0.002064289046835021, -0.002864081119267854, -0.002342908835831435, -0.0018706042532792497, 0.1376637253555037, -3.0632444438206575e-05, -0.0026947384471579954, 0.2837585962531342, -0.28506907819536154, -0.013584760620646294, 0.007396904645487471], "b": -2.189308165812744}, {"lambda": 1.0, "w": [0.06461399189639384, -0.0008209006526481716, -0.0020804722571494375, 0.00012536276544610018, 0.0004112374612245051, 0.0012419651799178272, -0.0008209006526481716, -0.05884337809411706, 0.00012648416293554776, 0.00022929576028796555, 0.00038474527963925335, 0.000246448870627156, -0.0020804722571494375, 0.00012648416293554776, 0.001959060465483154, -0.00013678405237080738, -0.0010098415756783499, -0.0016350338098302217, 0.00012536276544610018, 0.00022929576028796555, -0.00013678405237080738, 0.0043563607630566666, -0.00019789542587259906, 0.00021856752605221201, 0.0004112374612245051, 0.00038474527963925335, -0.0010098415756783499, -0.00019789542587259906, 0.053996646391518605, -0.00026942556174241235, 0.0012419651799178272, 0.000246448870627156, -0.0016350338098302217, 0.00021856752605221201, -0.00026942556174241235, 0.05142196081911358, 0.00013826647892534674, -0.0015781994236881668, 0.10871981277140763, -0.10936917186392013, -0.005129046119574983, 0.0028371289533958488], "b": -2.1497309230337343}, {"lambda": 3.1622776601683795, "w": [0.02298473776795711, -0.0003526289501453322, -0.0006177574830835586, 8.749238127808252e-05, 0.00017997794271347624, 0.0003751026013182152, -0.0003526289501453322, -0.022642626222463897, 0.0001606808686569396, 7.76627413271131e-05, 0.00024511574496440664, -6.338878836443313e-05, -0.0006177574830835586, 0.0001606808686569396, -0.0002702812705780658, 0.0009110461709419827, -0.0003876557773686698, -0.0006292264229898823, 8.749238127808252e-05, 7.76627413271131e-05, 0.0009110461709419827, 0.000575816194044909, -1.0105362071690925e-05, 0.0002719828252807962, 0.00017997794271347624, 0.00024511574496440664, -0.0003876557773686698, -1.0105362071690925e-05, 0.01800583152783236, -2.534891991076655e-05, 0.0003751026013182152, -6.338878836443313e-05, -0.0006292264229898823, 0.0002719828252807962, -2.534891991076655e-05, 0.017159679462876696, 5.579455593651072e-05, -0.0006337372366538924, 0.036698001708265406, -0.03694132943544583, -0.0016858318688819896, 0.001010207986685098], "b": -2.1707918458516517}, {"lambda": 10.0, "w": [0.007513920018260342, -0.0001245937083026907, -0.00019085474926085186, 3.34460854952434e-05, 6.126046243122544e-05, 0.00011784193498294541, -0.0001245937083026907, -0.0077348124003485275, 7.293271710635898e-05, 2.1274292805377072e-05, 9.680319171918945e-05, -4.479303273325218e-05, -0.00019085474926085186, 7.293271710635898e-05, -0.00021738241927215168, 0.000428180416738091, -0.00013121931387243595, -0.00021106613846320262, 3.34460854952434e-05, 2.1274292805377072e-05, 0.000428180416738091, 5.9207646865827786e-05, 6.247583403549222e-06, 0.0001124877967504617, 6.126046243122544e-05, 9.680319171918945e-05, -0.00013121931387243595, 6.247583403549222e-06, 0.005786258686334206, -1.2767714754669533e-06, 0.00011784193498294541, -4.479303273325218e-05, -0.00021106613846320262, 0.0001124877967504617, -1.2767714754669533e-06, 0.005516894627606666, 1.707066770756959e-05, -0.00021885350719157376, 0.011852589178293457, -0.01193474958903652, -0.0005358258390916919, 0.00033569155601737737], "b": -2.1871806137292116}, {"lambda": 31.622776601683793, "w": [0.0024000676094550074, -4.089850335080034e-05, -5.9889385901567e-05, 1.1179301362050663e-05, 1.976987801906231e-05, 3.724792289554252e-05, -4.089850335080034e-05, -0.0025120695893038254, 2.5942495801829632e-05, 6.057128584604754e-06, 3.288329284343185e-05, -1.7185978400845306e-05, -5.9889385901567e-05, 2.5942495801829632e-05, -8.383346265239355e-05, 0.0001513498554340236, -4.2467492403609964e-05, -6.794976853128738e-05, 1.1179301362050663e-05, 6.057128584604754e-06, 0.0001513498554340236, 4.54741035142356e-06, 3.148860662559521e-06, 3.8476597778896386e-05, 1.976987801906231e-05, 3.288329284343185e-05, -4.2467492403609964e-05, 3.148860662559521e-06, 0.0018389436182950358, 2.8904976745873485e-07, 3.724792289554252e-05, -1.7185978400845306e-05, -6.794976853128738e-05, 3.8476597778896386e-05, 2.8904976745873485e-07, 0.0017536477489284383, 5.252183633733606e-06, -7.142905125847115e-05, 0.003773484588712815, -0.0038000914219193612, -0.00016952052335619458, 0.00010797444601344573], "b": -2.1938535356310416}, {"lambda": 100.0, "w": [0.0007611986870443231, -1.3086732595672726e-05, -1.8905267542209466e-05, 3.598889353993354e-06, 6.274392646282549e-06, 1.1787303174658846e-05, -1.3086732595672726e-05, -0.0008014657198757882, 8.54154190471016e-06, 1.8307042649962453e-06, 1.066090994746693e-05, -5.794104170101041e-06, -1.8905267542209466e-05, 8.54154190471016e-06, -2.8039656988308768e-05, 4.949400552332738e-05, -1.3545583452059192e-05, -2.1600351157320893e-05, 3.598889353993354e-06, 1.8307042649962453e-06, 4.949400552332738e-05, 7.804209986281854e-09, 1.1424960680263912e-06, 1.246789617888126e-05, 6.274392646282549e-06, 1.066090994746693e-05, -1.3545583452059192e-05, 1.1424960680263912e-06, 0.0005824342188593933, 1.5796548175368382e-07, 1.1787303174658846e-05, -5.794104170101041e-06, -2.1600351157320893e-05, 1.246789617888126e-05, 1.5796548175368382e-07, 0.0005554540353923896, 1.6491343213209585e-06, -2.2818979203109667e-05, 0.001195793698500766, -0.0012042720066603896, -5.3584421256999824e-05, 3.433919281220549e-05], "b": -2.196099775340889}]